digraph Tree {
node [shape=box, style="rounded", color="black", fontname=helvetica] ;
edge [fontname=helvetica] ;
0 [label="X[20] <= -6.6\nmse = 0.2\nsamples = 43\nvalue = 0.4"] ;
1 [label="mse = 0.0\nsamples = 22\nvalue = 0.0"] ;
0 -> 1 [labeldistance=2.5, labelangle=45, headlabel="True"] ;
2 [label="mse = 0.0\nsamples = 21\nvalue = 1.0"] ;
0 -> 2 [labeldistance=2.5, labelangle=-45, headlabel="False"] ;
}